<?xml version="1.0"?>
<opencv_storage>
<!-- Created using Computer Vision Toolbox(tm) for MATLAB(R) -->
<!-- Version 9.7.0.1190202 (R2019b) -->
<!-- Compatible with OpenCV 3.4 -->
<cascade>
  <stageType>BOOST</stageType>
  <featureType>HAAR</featureType>
  <height>32</height>
  <width>39</width>
  <stageParams>
    <boostType>GAB</boostType>
    <minHitRate>9.9500000476837158e-01</minHitRate>
    <maxFalseAlarm>5.0000000000000000e-01</maxFalseAlarm>
    <weightTrimRate>9.4999999999999996e-01</weightTrimRate>
    <maxDepth>1</maxDepth>
    <maxWeakCount>100</maxWeakCount></stageParams>
  <featureParams>
    <maxCatCount>0</maxCatCount>
    <featSize>1</featSize>
    <mode>BASIC</mode></featureParams>
  <stageNum>6</stageNum>
  <stages>
    <!-- stage 0 -->
    <_>
      <maxWeakCount>2</maxWeakCount>
      <stageThreshold>-2.0469073951244354e-01</stageThreshold>
      <weakClassifiers>
        <_>
          <internalNodes>
            0 -1 12 1.7210926860570908e-02</internalNodes>
          <leafValues>
            -9.6455693244934082e-01 8.2608693838119507e-01</leafValues></_>
        <_>
          <internalNodes>
            0 -1 10 -2.8281796723604202e-02</internalNodes>
          <leafValues>
            7.5986623764038086e-01 -9.9425917863845825e-01</leafValues></_></weakClassifiers></_>
    <!-- stage 1 -->
    <_>
      <maxWeakCount>2</maxWeakCount>
      <stageThreshold>-3.0256709456443787e-01</stageThreshold>
      <weakClassifiers>
        <_>
          <internalNodes>
            0 -1 2 -1.3712403364479542e-02</internalNodes>
          <leafValues>
            6.0000002384185791e-01 -9.5396417379379272e-01</leafValues></_>
        <_>
          <internalNodes>
            0 -1 13 1.0125551372766495e-02</internalNodes>
          <leafValues>
            -9.0256708860397339e-01 7.7833116054534912e-01</leafValues></_></weakClassifiers></_>
    <!-- stage 2 -->
    <_>
      <maxWeakCount>3</maxWeakCount>
      <stageThreshold>-1.1895200014114380e+00</stageThreshold>
      <weakClassifiers>
        <_>
          <internalNodes>
            0 -1 6 -3.3319570124149323e-02</internalNodes>
          <leafValues>
            2.0588235557079315e-01 -9.5710456371307373e-01</leafValues></_>
        <_>
          <internalNodes>
            0 -1 1 -8.8291242718696594e-02</internalNodes>
          <leafValues>
            6.6587090492248535e-01 -8.4381932020187378e-01</leafValues></_>
        <_>
          <internalNodes>
            0 -1 8 -4.7108245780691504e-04</internalNodes>
          <leafValues>
            6.1168503761291504e-01 -8.9828628301620483e-01</leafValues></_></weakClassifiers></_>
    <!-- stage 3 -->
    <_>
      <maxWeakCount>2</maxWeakCount>
      <stageThreshold>-5.2265310287475586e-01</stageThreshold>
      <weakClassifiers>
        <_>
          <internalNodes>
            0 -1 0 -1.5450729988515377e-02</internalNodes>
          <leafValues>
            7.0588237047195435e-01 -9.0171992778778076e-01</leafValues></_>
        <_>
          <internalNodes>
            0 -1 3 8.1104226410388947e-03</internalNodes>
          <leafValues>
            -9.9291121959686279e-01 3.7906676530838013e-01</leafValues></_></weakClassifiers></_>
    <!-- stage 4 -->
    <_>
      <maxWeakCount>3</maxWeakCount>
      <stageThreshold>-1.1306965351104736e+00</stageThreshold>
      <weakClassifiers>
        <_>
          <internalNodes>
            0 -1 9 1.2027688324451447e-02</internalNodes>
          <leafValues>
            -9.5238095521926880e-01 2.6984128355979919e-01</leafValues></_>
        <_>
          <internalNodes>
            0 -1 11 -3.6831378936767578e-02</internalNodes>
          <leafValues>
            6.4116823673248291e-01 -8.4984821081161499e-01</leafValues></_>
        <_>
          <internalNodes>
            0 -1 4 -1.7147319391369820e-02</internalNodes>
          <leafValues>
            7.6765215396881104e-01 -8.1948387622833252e-01</leafValues></_></weakClassifiers></_>
    <!-- stage 5 -->
    <_>
      <maxWeakCount>3</maxWeakCount>
      <stageThreshold>-1.0694183111190796e+00</stageThreshold>
      <weakClassifiers>
        <_>
          <internalNodes>
            0 -1 7 -1.3496799394488335e-02</internalNodes>
          <leafValues>
            4.9152541160583496e-01 -8.9795917272567749e-01</leafValues></_>
        <_>
          <internalNodes>
            0 -1 14 -2.0436695776879787e-03</internalNodes>
          <leafValues>
            7.0504635572433472e-01 -7.3901408910751343e-01</leafValues></_>
        <_>
          <internalNodes>
            0 -1 5 -2.0516069605946541e-02</internalNodes>
          <leafValues>
            5.6755495071411133e-01 -9.5921742916107178e-01</leafValues></_></weakClassifiers></_></stages>
  <features>
    <_>
      <rects>
        <_>
          0 3 4 20 -1.</_>
        <_>
          0 3 2 10 2.</_>
        <_>
          2 13 2 10 2.</_></rects>
      <tilted>0</tilted></_>
    <_>
      <rects>
        <_>
          0 25 39 7 -1.</_>
        <_>
          13 25 13 7 3.</_></rects>
      <tilted>0</tilted></_>
    <_>
      <rects>
        <_>
          3 7 4 8 -1.</_>
        <_>
          3 11 4 4 2.</_></rects>
      <tilted>0</tilted></_>
    <_>
      <rects>
        <_>
          3 12 22 6 -1.</_>
        <_>
          3 12 11 3 2.</_>
        <_>
          14 15 11 3 2.</_></rects>
      <tilted>0</tilted></_>
    <_>
      <rects>
        <_>
          6 9 19 6 -1.</_>
        <_>
          6 11 19 2 3.</_></rects>
      <tilted>0</tilted></_>
    <_>
      <rects>
        <_>
          7 4 3 24 -1.</_>
        <_>
          7 16 3 12 2.</_></rects>
      <tilted>0</tilted></_>
    <_>
      <rects>
        <_>
          12 6 11 12 -1.</_>
        <_>
          12 10 11 4 3.</_></rects>
      <tilted>0</tilted></_>
    <_>
      <rects>
        <_>
          13 26 18 4 -1.</_>
        <_>
          13 28 18 2 2.</_></rects>
      <tilted>0</tilted></_>
    <_>
      <rects>
        <_>
          21 20 2 2 -1.</_>
        <_>
          21 21 2 1 2.</_></rects>
      <tilted>0</tilted></_>
    <_>
      <rects>
        <_>
          23 23 12 6 -1.</_>
        <_>
          23 25 12 2 3.</_></rects>
      <tilted>0</tilted></_>
    <_>
      <rects>
        <_>
          24 22 12 8 -1.</_>
        <_>
          24 26 12 4 2.</_></rects>
      <tilted>0</tilted></_>
    <_>
      <rects>
        <_>
          27 8 12 17 -1.</_>
        <_>
          31 8 4 17 3.</_></rects>
      <tilted>0</tilted></_>
    <_>
      <rects>
        <_>
          27 16 7 9 -1.</_>
        <_>
          27 19 7 3 3.</_></rects>
      <tilted>0</tilted></_>
    <_>
      <rects>
        <_>
          32 0 6 14 -1.</_>
        <_>
          32 0 3 7 2.</_>
        <_>
          35 7 3 7 2.</_></rects>
      <tilted>0</tilted></_>
    <_>
      <rects>
        <_>
          32 23 4 6 -1.</_>
        <_>
          34 23 2 6 2.</_></rects>
      <tilted>0</tilted></_></features></cascade>
</opencv_storage>
